digraph Tree {
node [shape=box, fontname="helvetica"] ;
edge [fontname="helvetica"] ;
0 [label="man <= 0.5\ngini = 0.446\nsamples = 1050\nvalue = [698, 352]"] ;
1 [label="pclass=3rd <= 0.5\ngini = 0.444\nsamples = 366\nvalue = [122, 244]"] ;
0 -> 1 [labeldistance=2.5, labelangle=45, headlabel="True"] ;
2 [label="age <= 38.5\ngini = 0.132\nsamples = 197\nvalue = [14, 183]"] ;
1 -> 2 ;
3 [label="age <= 37.5\ngini = 0.16\nsamples = 148\nvalue = [13, 135]"] ;
2 -> 3 ;
4 [label="age <= 17.5\ngini = 0.151\nsamples = 146\nvalue = [12, 134]"] ;
3 -> 4 ;
5 [label="gini = 0.0\nsamples = 16\nvalue = [0, 16]"] ;
4 -> 5 ;
6 [label="gini = 0.168\nsamples = 130\nvalue = [12, 118]"] ;
4 -> 6 ;
7 [label="pclass=1st <= 0.5\ngini = 0.5\nsamples = 2\nvalue = [1, 1]"] ;
3 -> 7 ;
8 [label="gini = 0.0\nsamples = 1\nvalue = [1, 0]"] ;
7 -> 8 ;
9 [label="gini = 0.0\nsamples = 1\nvalue = [0, 1]"] ;
7 -> 9 ;
10 [label="age <= 49.5\ngini = 0.04\nsamples = 49\nvalue = [1, 48]"] ;
2 -> 10 ;
11 [label="gini = 0.0\nsamples = 26\nvalue = [0, 26]"] ;
10 -> 11 ;
12 [label="age <= 50.5\ngini = 0.083\nsamples = 23\nvalue = [1, 22]"] ;
10 -> 12 ;
13 [label="gini = 0.278\nsamples = 6\nvalue = [1, 5]"] ;
12 -> 13 ;
14 [label="gini = 0.0\nsamples = 17\nvalue = [0, 17]"] ;
12 -> 14 ;
15 [label="age <= 19.5\ngini = 0.461\nsamples = 169\nvalue = [108, 61]"] ;
1 -> 15 ;
16 [label="age <= 13.0\ngini = 0.5\nsamples = 22\nvalue = [11, 11]"] ;
15 -> 16 ;
17 [label="age <= 5.5\ngini = 0.346\nsamples = 9\nvalue = [7, 2]"] ;
16 -> 17 ;
18 [label="gini = 0.444\nsamples = 3\nvalue = [1, 2]"] ;
17 -> 18 ;
19 [label="gini = 0.0\nsamples = 6\nvalue = [6, 0]"] ;
17 -> 19 ;
20 [label="age <= 15.5\ngini = 0.426\nsamples = 13\nvalue = [4, 9]"] ;
16 -> 20 ;
21 [label="gini = 0.0\nsamples = 1\nvalue = [0, 1]"] ;
20 -> 21 ;
22 [label="gini = 0.444\nsamples = 12\nvalue = [4, 8]"] ;
20 -> 22 ;
23 [label="age <= 21.5\ngini = 0.449\nsamples = 147\nvalue = [97, 50]"] ;
15 -> 23 ;
24 [label="gini = 0.0\nsamples = 3\nvalue = [3, 0]"] ;
23 -> 24 ;
25 [label="age <= 23.5\ngini = 0.453\nsamples = 144\nvalue = [94, 50]"] ;
23 -> 25 ;
26 [label="gini = 0.444\nsamples = 3\nvalue = [1, 2]"] ;
25 -> 26 ;
27 [label="gini = 0.449\nsamples = 141\nvalue = [93, 48]"] ;
25 -> 27 ;
28 [label="age <= 12.0\ngini = 0.266\nsamples = 684\nvalue = [576, 108]"] ;
0 -> 28 [labeldistance=2.5, labelangle=-45, headlabel="False"] ;
29 [label="pclass=3rd <= 0.5\ngini = 0.34\nsamples = 23\nvalue = [5, 18]"] ;
28 -> 29 ;
30 [label="gini = 0.0\nsamples = 14\nvalue = [0, 14]"] ;
29 -> 30 ;
31 [label="age <= 3.5\ngini = 0.494\nsamples = 9\nvalue = [5, 4]"] ;
29 -> 31 ;
32 [label="gini = 0.0\nsamples = 2\nvalue = [0, 2]"] ;
31 -> 32 ;
33 [label="age <= 7.5\ngini = 0.408\nsamples = 7\nvalue = [5, 2]"] ;
31 -> 33 ;
34 [label="gini = 0.0\nsamples = 3\nvalue = [3, 0]"] ;
33 -> 34 ;
35 [label="gini = 0.5\nsamples = 4\nvalue = [2, 2]"] ;
33 -> 35 ;
36 [label="pclass=1st <= 0.5\ngini = 0.235\nsamples = 661\nvalue = [571, 90]"] ;
28 -> 36 ;
37 [label="age <= 18.5\ngini = 0.175\nsamples = 526\nvalue = [475, 51]"] ;
36 -> 37 ;
38 [label="gini = 0.0\nsamples = 19\nvalue = [19, 0]"] ;
37 -> 38 ;
39 [label="age <= 20.5\ngini = 0.181\nsamples = 507\nvalue = [456, 51]"] ;
37 -> 39 ;
40 [label="gini = 0.32\nsamples = 20\nvalue = [16, 4]"] ;
39 -> 40 ;
41 [label="gini = 0.174\nsamples = 487\nvalue = [440, 47]"] ;
39 -> 41 ;
42 [label="age <= 60.5\ngini = 0.411\nsamples = 135\nvalue = [96, 39]"] ;
36 -> 42 ;
43 [label="age <= 17.5\ngini = 0.429\nsamples = 125\nvalue = [86, 39]"] ;
42 -> 43 ;
44 [label="gini = 0.0\nsamples = 1\nvalue = [0, 1]"] ;
43 -> 44 ;
45 [label="gini = 0.425\nsamples = 124\nvalue = [86, 38]"] ;
43 -> 45 ;
46 [label="gini = 0.0\nsamples = 10\nvalue = [10, 0]"] ;
42 -> 46 ;
}